digraph Tree {
node [shape=box, style="filled", color="black", fontname="helvetica"] ;
edge [fontname="helvetica"] ;
0 [label="Income <= 2750.0\ngini = 0.78\nsamples = 20\nvalue = [1, 7, 3, 2, 4, 3]\nclass = car", fillcolor="#edfada"] ;
1 [label="Income <= 900.0\ngini = 0.7\nsamples = 10\nvalue = [1, 0, 0, 2, 4, 3]\nclass = scooter", fillcolor="#ede3fb"] ;
0 -> 1 [labeldistance=2.5, labelangle=45, headlabel="True"] ;
2 [label="Income <= 100.0\ngini = 0.571\nsamples = 7\nvalue = [1, 0, 0, 2, 4, 0]\nclass = scooter", fillcolor="#cdb0f5"] ;
1 -> 2 ;
3 [label="Age <= 12.0\ngini = 0.625\nsamples = 4\nvalue = [1, 0, 0, 2, 1, 0]\nclass = metro", fillcolor="#bddef6"] ;
2 -> 3 ;
4 [label="Age <= 6.5\ngini = 0.5\nsamples = 2\nvalue = [1, 0, 0, 0, 1, 0]\nclass = bicycle", fillcolor="#ffffff"] ;
3 -> 4 ;
5 [label="gini = 0.0\nsamples = 1\nvalue = [1, 0, 0, 0, 0, 0]\nclass = bicycle", fillcolor="#e58139"] ;
4 -> 5 ;
6 [label="gini = 0.0\nsamples = 1\nvalue = [0, 0, 0, 0, 1, 0]\nclass = scooter", fillcolor="#8139e5"] ;
4 -> 6 ;
7 [label="gini = 0.0\nsamples = 2\nvalue = [0, 0, 0, 2, 0, 0]\nclass = metro", fillcolor="#399de5"] ;
3 -> 7 ;
8 [label="gini = 0.0\nsamples = 3\nvalue = [0, 0, 0, 0, 3, 0]\nclass = scooter", fillcolor="#8139e5"] ;
2 -> 8 ;
9 [label="gini = 0.0\nsamples = 3\nvalue = [0, 0, 0, 0, 0, 3]\nclass = taxi", fillcolor="#e5399d"] ;
1 -> 9 ;
10 [label="Age <= 63.5\ngini = 0.42\nsamples = 10\nvalue = [0, 7, 3, 0, 0, 0]\nclass = car", fillcolor="#c7f08e"] ;
0 -> 10 [labeldistance=2.5, labelangle=-45, headlabel="False"] ;
11 [label="gini = 0.0\nsamples = 7\nvalue = [0, 7, 0, 0, 0, 0]\nclass = car", fillcolor="#9de539"] ;
10 -> 11 ;
12 [label="gini = 0.0\nsamples = 3\nvalue = [0, 0, 3, 0, 0, 0]\nclass = helicopter", fillcolor="#39e581"] ;
10 -> 12 ;
}